network unknown {
}
variable Cacao_State {
    type discrete [ 3 ] { -1, 0, 1 };
}
variable EURUSD_State {
    type discrete [ 2 ] { 0, 1 };
}
variable Oil_State {
    type discrete [ 2 ] { 0, 1 };
}
variable SP500_State {
    type discrete [ 2 ] { 0, 1 };
}
variable Taux_State {
    type discrete [ 2 ] { 0, 1 };
}
variable USDX_State {
    type discrete [ 2 ] { 0, 1 };
}
variable VIX_State {
    type discrete [ 2 ] { 0, 1 };
}
probability ( Cacao_State | EURUSD_State, Oil_State, SP500_State, USDX_State, VIX_State ) {
    ( 0, 0, 0, 0, 0 ) 0.17498875393612237, 0.6932073774179038, 0.13180386864597393;
    ( 0, 0, 0, 0, 1 ) 0.08861898335582548, 0.7795771479982007, 0.13180386864597393;
    ( 0, 0, 0, 1, 0 ) 0.13775270333803483, 0.7244945933239305, 0.13775270333803483;
    ( 0, 0, 0, 1, 1 ) 0.21494635590085093, 0.605623381428043, 0.17943026267110618;
    ( 0, 0, 1, 0, 0 ) 0.0028686173264486524, 0.9391853126792887, 0.05794606999426277;
    ( 0, 0, 1, 0, 1 ) 0.10712343665035345, 0.6813485589994562, 0.2115280043501903;
    ( 0, 0, 1, 1, 0 ) 0.18891038039974212, 0.7459703417150226, 0.06511927788523533;
    ( 0, 0, 1, 1, 1 ) 0.352762598664238, 0.41105039465695203, 0.23618700667880993;
    ( 0, 1, 0, 0, 0 ) 0.06472277446432516, 0.9129666445769825, 0.022310580958692285;
    ( 0, 1, 0, 0, 1 ) 0.25107112253641817, 0.5801199657240788, 0.16880891173950302;
    ( 0, 1, 0, 1, 0 ) 0.13897820650232226, 0.7220435869953555, 0.13897820650232226;
    ( 0, 1, 0, 1, 1 ) 0.12221174992145774, 0.7555765001570844, 0.12221174992145774;
    ( 0, 1, 1, 0, 0 ) 0.12581063553826197, 0.7981841763942931, 0.07600518806744487;
    ( 0, 1, 1, 0, 1 ) 0.06941580756013745, 0.6632302405498283, 0.26735395189003436;
    ( 0, 1, 1, 1, 0 ) 0.2858907832962689, 0.594267358537188, 0.11984185816654311;
    ( 0, 1, 1, 1, 1 ) 0.10839807621161675, 0.7832038475767666, 0.10839807621161675;
    ( 1, 0, 0, 0, 0 ) 0.09491415613864594, 0.6857790735341756, 0.2193067703271785;
    ( 1, 0, 0, 0, 1 ) 0.07072169925174993, 0.8585566014965, 0.07072169925174993;
    ( 1, 0, 0, 1, 0 ) 0.25053902544200085, 0.5817162570073308, 0.1677447175506684;
    ( 1, 0, 0, 1, 1 ) 0.1479109484598963, 0.5870692284232998, 0.26501982311680394;
    ( 1, 0, 1, 0, 0 ) 0.07600518806744487, 0.7981841763942931, 0.12581063553826197;
    ( 1, 0, 1, 0, 1 ) 0.11706492879555877, 0.7195269128650736, 0.1634081583393676;
    ( 1, 0, 1, 1, 0 ) 0.0028686173264486524, 0.8841078600114746, 0.11302352266207691;
    ( 1, 0, 1, 1, 1 ) 0.07288198298187201, 0.7121716611172771, 0.21494635590085093;
    ( 1, 1, 0, 0, 0 ) 0.15142118863049098, 0.6971576227390182, 0.15142118863049098;
    ( 1, 1, 0, 0, 1 ) 0.13539518900343642, 0.7292096219931271, 0.13539518900343642;
    ( 1, 1, 0, 1, 0 ) 0.2735760971055089, 0.45284780578898226, 0.2735760971055089;
    ( 1, 1, 0, 1, 1 ) 0.21494635590085093, 0.7121716611172771, 0.07288198298187201;
    ( 1, 1, 1, 0, 0 ) 0.10712343665035345, 0.6291462751495378, 0.26373028820010874;
    ( 1, 1, 1, 0, 1 ) 0.1549183592194345, 0.651931501393867, 0.19315013938669853;
    ( 1, 1, 1, 1, 0 ) 0.17789921068609593, 0.6442015786278081, 0.17789921068609593;
    ( 1, 1, 1, 1, 1 ) 0.13180386864597393, 0.7363922627080522, 0.13180386864597393;

}
probability ( EURUSD_State ) {
    table 0.4946300715990454, 0.5053699284009546 ;
}
probability ( Oil_State ) {
    table 0.5137231503579952, 0.4862768496420048 ;
}
probability ( SP500_State | Taux_State ) {
    ( 0 ) 0.5011806375442739, 0.4988193624557261;
    ( 1 ) 0.5168878166465621, 0.48311218335343786;

}
probability ( Taux_State ) {
    table 0.5053699284009546, 0.4946300715990454 ;
}
probability ( USDX_State ) {
    table 0.5220763723150358, 0.4779236276849642 ;
}
probability ( VIX_State | Taux_State ) {
    ( 0 ) 0.5460448642266824, 0.4539551357733176;
    ( 1 ) 0.45657418576598313, 0.5434258142340169;

}
